digraph Tree {
node [shape=box] ;
0 [label="X[0] <= 1.85\ngini = 0.0948\nsamples = 501\nvalue = [476, 25]"] ;
1 [label="X[4] <= 4.3956\ngini = 0.0414\nsamples = 473\nvalue = [463, 10]"] ;
0 -> 1 [labeldistance=2.5, labelangle=45, headlabel="True"] ;
2 [label="X[1] <= 2.02\ngini = 0.0297\nsamples = 465\nvalue = [458, 7]"] ;
1 -> 2 ;
3 [label="X[5] <= 1.6995\ngini = 0.0215\nsamples = 460\nvalue = [455, 5]"] ;
2 -> 3 ;
4 [label="X[1] <= 1.07\ngini = 0.0174\nsamples = 457\nvalue = [453, 4]"] ;
3 -> 4 ;
5 [label="X[2] <= 0.465\ngini = 0.0046\nsamples = 431\nvalue = [430, 1]"] ;
4 -> 5 ;
6 [label="gini = 0.0\nsamples = 401\nvalue = [401, 0]"] ;
5 -> 6 ;
7 [label="X[6] <= 4.5494\ngini = 0.0644\nsamples = 30\nvalue = [29, 1]"] ;
5 -> 7 ;
8 [label="X[6] <= 4.3388\ngini = 0.375\nsamples = 4\nvalue = [3, 1]"] ;
7 -> 8 ;
9 [label="gini = 0.0\nsamples = 3\nvalue = [3, 0]"] ;
8 -> 9 ;
10 [label="gini = 0.0\nsamples = 1\nvalue = [0, 1]"] ;
8 -> 10 ;
11 [label="gini = 0.0\nsamples = 26\nvalue = [26, 0]"] ;
7 -> 11 ;
12 [label="X[5] <= -0.3357\ngini = 0.2041\nsamples = 26\nvalue = [23, 3]"] ;
4 -> 12 ;
13 [label="gini = 0.0\nsamples = 2\nvalue = [0, 2]"] ;
12 -> 13 ;
14 [label="X[1] <= 1.135\ngini = 0.0799\nsamples = 24\nvalue = [23, 1]"] ;
12 -> 14 ;
15 [label="X[5] <= 0.3162\ngini = 0.375\nsamples = 4\nvalue = [3, 1]"] ;
14 -> 15 ;
16 [label="gini = 0.0\nsamples = 3\nvalue = [3, 0]"] ;
15 -> 16 ;
17 [label="gini = 0.0\nsamples = 1\nvalue = [0, 1]"] ;
15 -> 17 ;
18 [label="gini = 0.0\nsamples = 20\nvalue = [20, 0]"] ;
14 -> 18 ;
19 [label="X[6] <= 10.4702\ngini = 0.4444\nsamples = 3\nvalue = [2, 1]"] ;
3 -> 19 ;
20 [label="gini = 0.0\nsamples = 1\nvalue = [0, 1]"] ;
19 -> 20 ;
21 [label="gini = 0.0\nsamples = 2\nvalue = [2, 0]"] ;
19 -> 21 ;
22 [label="X[1] <= 2.34\ngini = 0.48\nsamples = 5\nvalue = [3, 2]"] ;
2 -> 22 ;
23 [label="gini = 0.0\nsamples = 2\nvalue = [0, 2]"] ;
22 -> 23 ;
24 [label="gini = 0.0\nsamples = 3\nvalue = [3, 0]"] ;
22 -> 24 ;
25 [label="X[1] <= 0.46\ngini = 0.4688\nsamples = 8\nvalue = [5, 3]"] ;
1 -> 25 ;
26 [label="gini = 0.0\nsamples = 4\nvalue = [4, 0]"] ;
25 -> 26 ;
27 [label="X[4] <= 5.9926\ngini = 0.375\nsamples = 4\nvalue = [1, 3]"] ;
25 -> 27 ;
28 [label="gini = 0.0\nsamples = 3\nvalue = [0, 3]"] ;
27 -> 28 ;
29 [label="gini = 0.0\nsamples = 1\nvalue = [1, 0]"] ;
27 -> 29 ;
30 [label="X[5] <= 1.0421\ngini = 0.4974\nsamples = 28\nvalue = [13, 15]"] ;
0 -> 30 [labeldistance=2.5, labelangle=-45, headlabel="False"] ;
31 [label="X[2] <= 0.62\ngini = 0.455\nsamples = 20\nvalue = [13, 7]"] ;
30 -> 31 ;
32 [label="gini = 0.0\nsamples = 10\nvalue = [10, 0]"] ;
31 -> 32 ;
33 [label="X[6] <= 4.389\ngini = 0.42\nsamples = 10\nvalue = [3, 7]"] ;
31 -> 33 ;
34 [label="gini = 0.0\nsamples = 2\nvalue = [2, 0]"] ;
33 -> 34 ;
35 [label="X[6] <= 7.0629\ngini = 0.2188\nsamples = 8\nvalue = [1, 7]"] ;
33 -> 35 ;
36 [label="gini = 0.0\nsamples = 6\nvalue = [0, 6]"] ;
35 -> 36 ;
37 [label="X[3] <= 1.8888\ngini = 0.5\nsamples = 2\nvalue = [1, 1]"] ;
35 -> 37 ;
38 [label="gini = 0.0\nsamples = 1\nvalue = [0, 1]"] ;
37 -> 38 ;
39 [label="gini = 0.0\nsamples = 1\nvalue = [1, 0]"] ;
37 -> 39 ;
40 [label="gini = 0.0\nsamples = 8\nvalue = [0, 8]"] ;
30 -> 40 ;
}